/*!
 * The following copyright notice may not be removed under any circumstances.
 * 
 * Copyright:
 * Copyright (C) 1993; Type Market Ltd. Moscow, 119136, Box 20;
 * phone:(095)1427712; Created by A.Kustov
 */
Cufon.registerFont({"w":3555,"face":{"font-family":"EuropeExt","font-weight":400,"font-stretch":"normal","units-per-em":"4096","panose-1":"2 11 114 0 0 0 0 0 0 0","ascent":"3276","descent":"-820","x-height":"8","bbox":"-82 -3625 5657 868.177","underline-thickness":"50","underline-position":"-105","unicode-range":"U+0020-U+044F"},"glyphs":{" ":{"w":1303},"!":{"d":"549,-688r-295,0r0,-2155r295,0r0,2155xm254,0r0,-319r295,0r0,319r-295,0","w":803},"\"":{"d":"844,-2900r229,0r-49,705r-131,0xm295,-2900r229,0r-41,705r-139,0","w":1384},"#":{"d":"1040,-2777r230,0r-140,532r607,0r139,-532r221,0r-131,532r533,0r-58,230r-540,0r-123,508r532,0r-57,229r-533,0r-139,557r-221,0r139,-557r-606,0r-139,541r-222,0r140,-541r-557,0r49,-229r565,0r123,-508r-557,0r65,-230r549,0xm1688,-2015r-615,0r-123,508r606,0","w":2621},"$":{"d":"979,-2572v-341,-1,-479,179,-479,532v0,295,160,443,479,443r709,0r0,-975r-709,0xm2654,-287v382,3,533,-171,533,-532v0,-242,-26,-369,-189,-442v-76,-34,-191,-50,-344,-50r-672,0r0,1024r672,0xm500,-795v12,343,176,508,540,508r648,0r0,-1024r-656,0v-546,1,-852,-202,-852,-729v0,-532,323,-819,869,-819r639,0r0,-254r294,0r0,254v326,5,716,-19,970,47v347,91,532,315,530,748r-295,0v-11,-243,-85,-374,-277,-450v-211,-83,-621,-52,-928,-58r0,975v487,11,1059,-59,1323,182v144,131,201,318,201,596v0,345,-101,576,-342,709v-130,72,-305,110,-530,110r-652,0r0,369r-294,0r0,-369r-627,0v-534,0,-860,-258,-856,-795r295,0","w":3695},"%":{"d":"451,-1720v5,297,111,385,409,385r602,0v276,-8,398,-97,398,-385r0,-475v-5,-309,-84,-394,-394,-394r-606,0v-201,2,-319,23,-375,151v-24,55,-34,136,-34,243r0,475xm2114,-1696v0,283,-71,443,-258,533v-132,63,-532,82,-701,82v-162,0,-573,-22,-699,-82v-189,-90,-259,-249,-259,-533v0,-298,-33,-690,57,-894v87,-197,272,-253,573,-253r664,0v285,2,460,64,555,253v102,203,68,590,68,894xm2916,-2982r-843,3121r-238,0r836,-3121r245,0xm4547,-606v-1,284,-64,454,-253,539v-89,40,-209,67,-362,67r-663,0v-293,-12,-482,-66,-577,-256v-43,-85,-62,-203,-62,-350v0,-367,-59,-815,139,-1007v111,-108,270,-139,500,-140r663,0v434,-5,615,195,615,631r0,516xm2892,-631v4,293,101,385,397,385r614,0v287,4,398,-98,398,-385r0,-475v-2,-190,-30,-304,-155,-358v-56,-24,-135,-35,-238,-35r-615,0v-324,7,-401,72,-401,393r0,475","w":4710},"&":{"d":"3252,-180v-155,123,-394,180,-696,180r-1352,0v-292,0,-531,-83,-718,-249v-187,-166,-281,-411,-281,-734v0,-217,46,-384,138,-501v92,-117,185,-193,277,-228v92,-35,161,-54,207,-57v-80,-59,-135,-194,-131,-369v13,-538,441,-705,992,-705r860,0v514,-6,836,215,937,592v24,91,30,155,29,228r-303,0v-8,-350,-229,-525,-663,-525r-901,0v-211,0,-371,39,-482,116v-111,77,-166,186,-166,327v0,109,26,188,77,235v51,47,94,75,128,84r2032,1213v53,-51,121,-134,202,-251v81,-117,123,-244,126,-380r294,0v0,197,-45,366,-135,508v-90,142,-165,240,-225,295r279,163r-181,271xm500,-983v1,434,222,688,663,688r1426,0v138,6,279,-44,352,-82r-1876,-1139v-94,0,-212,34,-353,100v-141,66,-212,210,-212,433","w":4047},"'":{"d":"295,-2900r229,0r-41,705r-139,0","w":852},"(":{"d":"1180,-2785v-481,25,-721,230,-721,721r0,1523v0,345,78,551,305,645v101,42,241,63,416,68r0,320v-450,-18,-762,-145,-922,-451v-80,-151,-119,-348,-119,-590r0,-1515v4,-664,407,-1008,1041,-1041r0,320","w":1294},")":{"d":"827,-2064v3,-488,-244,-700,-712,-721r0,-320v629,33,1032,380,1032,1041r0,1515v0,724,-343,1007,-1032,1041r0,-320v330,-14,529,-61,638,-280v50,-101,74,-245,74,-433r0,-1523","w":1294},"*":{"d":"1122,-2621v68,0,148,73,148,139v0,76,-52,125,-156,147v-63,14,-128,30,-198,49v-70,19,-119,33,-146,41v-41,0,78,29,360,74v88,14,146,76,148,164v2,73,-58,147,-131,147v-44,0,-95,-25,-148,-82v-57,-61,-105,-118,-151,-166r-103,-104v7,29,19,75,37,138v18,63,41,138,70,223v-1,10,8,64,8,73v4,87,-67,165,-147,164v-76,0,-151,-72,-140,-155v21,-164,86,-302,132,-435v6,0,-81,91,-254,279v-48,53,-95,82,-148,82v-73,0,-151,-79,-147,-148v4,-82,77,-131,163,-155r361,-99v-1,0,-39,-8,-116,-25v-77,-17,-158,-34,-245,-48v-85,-13,-159,-68,-163,-148v-3,-66,70,-147,139,-147v49,0,99,23,147,73r162,166r101,97v-3,0,-41,-118,-115,-353v2,-14,-17,-55,-17,-65v-5,-82,74,-165,148,-164v76,1,139,70,139,156v0,86,-25,122,-44,187r-71,239v-6,0,71,-95,238,-279v41,-45,90,-65,139,-65","w":1425},"+":{"d":"221,-1335r590,0r0,-590r270,0r0,590r598,0r0,270r-598,0r0,598r-270,0r0,-598r-590,0r0,-270","w":1917},",":{"d":"246,8r0,-319r319,0r0,532v0,99,-38,173,-114,221r-156,0v77,-58,115,-132,115,-221r0,-213r-164,0","w":762},"-":{"d":"221,-1343r1303,0r0,303r-1303,0r0,-303","w":1778},".":{"d":"246,0r0,-319r319,0r0,319r-319,0","w":762},"\/":{"d":"1262,-2982r-910,3351r-319,0r909,-3351r320,0","w":1294},"0":{"d":"467,-1401v0,289,-7,716,81,887v49,95,119,158,218,186v99,28,252,41,459,41r1114,0v198,0,347,-14,445,-42v98,-28,172,-90,220,-187v48,-97,76,-250,76,-459r0,-860v-2,-358,-62,-569,-297,-671v-105,-46,-254,-66,-444,-66r-1114,0v-207,0,-361,18,-463,53v-102,35,-173,105,-218,207v-80,181,-77,617,-77,911xm172,-1401v0,-312,2,-716,64,-945v114,-419,453,-513,993,-513r1114,0v473,11,753,87,913,398v76,147,119,356,119,626r0,860v-5,270,-38,475,-108,613v-157,310,-436,362,-924,362r-1114,0v-529,-4,-864,-79,-988,-478v-69,-221,-69,-616,-69,-923"},"1":{"d":"2146,0r-319,0r0,-2548r-770,754r-205,-197r844,-852r450,0r0,2843"},"2":{"d":"246,-2064v3,-601,403,-795,1024,-795r1024,0v526,-1,864,95,974,494v68,245,70,754,-34,959v-61,119,-159,212,-308,270v-149,58,-361,87,-636,87r-1024,0v-500,0,-750,172,-750,517r0,245r2802,0r0,287r-3097,0r0,-532v0,-257,86,-455,258,-594v172,-139,436,-209,791,-209r1024,0v189,0,336,-18,440,-53v213,-73,289,-226,289,-513v0,-329,-53,-513,-279,-607v-105,-44,-257,-64,-454,-64r-1024,0v-264,0,-446,41,-546,124v-100,83,-151,211,-155,384r-319,0"},"3":{"d":"3285,-836v0,618,-377,836,-991,836r-1028,0v-627,-1,-963,-213,-971,-803r295,0v14,344,239,516,676,516r1093,0v428,4,631,-125,631,-549v0,-267,-66,-413,-261,-462v-85,-22,-209,-29,-370,-29r-880,0r0,-287r880,0v397,3,637,-85,631,-475v-5,-343,-269,-466,-635,-467r-1093,0v-399,-1,-655,164,-672,533r-295,0v-5,0,-8,-6,-8,-17v0,-87,21,-190,64,-310v43,-120,136,-232,281,-336v145,-104,355,-157,630,-157r1032,0v294,0,533,51,716,153v183,102,275,287,275,552v1,360,-136,580,-401,655v70,20,147,41,214,100v118,103,187,294,187,547"},"4":{"d":"2941,-2843r0,1942r381,0r0,287r-381,0r0,614r-295,0r0,-614r-2376,0r0,-295r2351,-1934r320,0xm2646,-901r0,-1606r-1946,1606r1946,0"},"5":{"d":"549,-1634v67,-105,229,-213,414,-213r1286,0v692,-3,1061,245,1061,929v0,493,-191,772,-580,874v-132,35,-290,52,-477,52r-1016,0v-688,0,-1032,-270,-1032,-811r295,0v7,417,301,525,737,524r1012,0v197,0,352,-23,463,-68v221,-90,301,-266,303,-571v2,-478,-273,-643,-766,-643r-1254,0v-272,3,-370,52,-446,250r-295,0r0,-1532r2986,0r0,287r-2691,0r0,922"},"6":{"d":"1266,-2589v-184,7,-329,30,-436,71v-203,77,-298,214,-298,478r0,660v125,-198,377,-287,738,-287r1016,0v252,0,455,28,610,79v326,107,458,347,442,785v-15,400,-151,633,-454,751v-156,62,-361,93,-615,93r-987,0v-363,0,-628,-70,-794,-209v-166,-139,-250,-343,-250,-610r0,-1262v-4,-632,412,-835,1032,-835r1016,0v351,12,610,82,779,211v169,129,253,329,253,600r-295,0v-18,-246,-103,-374,-303,-452v-106,-42,-249,-73,-430,-73r-1024,0xm2286,-1380r-1000,0v-216,0,-378,21,-486,63v-209,81,-268,205,-268,469v0,269,65,422,265,520v109,53,264,82,469,82r1024,0v280,0,474,-40,584,-122v135,-100,176,-240,165,-455v-13,-266,-73,-402,-281,-488v-109,-46,-267,-69,-472,-69"},"7":{"d":"90,-2843r3388,0r0,271r-2560,2568r-414,0r2580,-2556r-2994,0r0,-283"},"8":{"d":"573,-786v0,413,272,540,713,540r1045,0v275,0,466,-46,573,-139v107,-93,160,-226,160,-401v0,-267,-72,-399,-278,-474v-107,-39,-258,-59,-455,-59r-1045,0v-273,0,-461,46,-562,137v-101,91,-151,223,-151,396xm3006,-2064v0,-400,-231,-524,-675,-525r-1045,0v-259,0,-433,44,-522,132v-89,88,-133,220,-133,397v0,231,59,333,241,396v94,32,232,58,414,58r1045,0v189,-7,331,-26,427,-57v187,-61,248,-163,248,-401xm1286,41v-632,0,-1030,-206,-1032,-819v0,-184,41,-327,123,-428v82,-101,165,-166,248,-198v83,-32,145,-50,186,-54v-81,-7,-187,-24,-267,-72v-141,-85,-236,-257,-233,-510v5,-394,126,-629,409,-746v143,-59,331,-89,566,-89r1049,0v641,-4,975,207,975,835v0,363,-168,562,-492,582v316,55,549,279,549,680v0,546,-344,819,-1032,819r-1049,0"},"9":{"d":"3338,-795v4,637,-413,836,-1032,836r-1016,0v-611,-24,-1026,-201,-1032,-811r295,0v15,242,106,375,303,452v105,42,248,72,430,72r1024,0v273,-10,463,-57,571,-142v108,-85,162,-221,162,-407r0,-659v-124,198,-376,287,-737,287r-1016,0v-251,0,-454,-28,-610,-79v-327,-107,-456,-348,-442,-786v14,-454,203,-695,578,-790v135,-34,298,-53,491,-53r987,0v363,0,628,70,794,209v166,139,250,343,250,610r0,1261xm2294,-2589r-1004,0v-205,0,-362,25,-471,69v-234,94,-282,272,-282,591v0,153,55,270,165,352v110,82,304,123,584,123r1024,0v205,0,360,-28,468,-82v201,-100,265,-247,265,-520v0,-171,-63,-302,-179,-394v-116,-92,-306,-139,-570,-139"},":":{"d":"246,-1491r0,-319r319,0r0,319r-319,0xm246,0r0,-319r319,0r0,319r-319,0","w":762},";":{"d":"246,-1491r0,-319r319,0r0,319r-319,0xm246,8r0,-319r319,0r0,532v0,99,-38,173,-114,221r-156,0v77,-58,115,-132,115,-221r0,-213r-164,0","w":762},"<":{"d":"131,-1253r1172,-795r0,319r-697,476r697,458r0,312","w":1516},"=":{"d":"221,-999r1303,0r0,294r-1303,0r0,-294xm221,-1655r1303,0r0,295r-1303,0r0,-295","w":1778},">":{"d":"1384,-1253r-1171,770r0,-312r696,-458r-696,-476r0,-319","w":1516},"?":{"d":"1368,0r0,-319r320,0r0,319r-320,0xm2097,-1303v-288,1,-404,98,-409,369r0,246r-320,0r0,-279v0,-415,243,-622,729,-622v382,0,650,-7,841,-169v80,-68,118,-171,118,-306v0,-274,-69,-408,-278,-476v-103,-33,-252,-49,-447,-49r-1119,0v-263,0,-446,45,-550,133v-104,88,-158,219,-162,392r-320,0v0,-541,336,-811,1008,-811r1139,0v259,0,464,28,617,84v299,109,431,330,431,727v0,422,-207,615,-558,698v-182,43,-423,63,-720,63","w":3604},"@":{"d":"1671,-1753v0,-219,-141,-424,-368,-418v-280,7,-452,203,-459,475v-5,220,153,402,385,402v263,0,442,-214,442,-459xm2040,-1303v232,0,328,-244,327,-483v0,-28,4,-102,-24,-213v-121,-476,-409,-776,-1000,-778v-444,-2,-763,226,-914,523v-156,307,-157,675,0,982v152,297,469,522,914,518v269,-3,549,-90,672,-237r90,114v-117,143,-491,268,-778,263v-577,-9,-935,-298,-1095,-719v-104,-274,-103,-572,2,-847v163,-427,527,-736,1109,-736v382,0,681,142,885,374v119,136,217,305,254,519v47,272,42,340,-21,548v-55,182,-203,320,-446,320v-115,0,-191,-35,-228,-107v-37,-72,-57,-132,-58,-180v-12,48,-55,108,-128,180v-73,72,-200,107,-380,107v-328,0,-533,-217,-533,-533v0,-236,129,-425,290,-531v156,-102,449,-124,606,-23v105,68,144,141,194,243r49,-287r131,0r-98,770v0,117,60,213,180,213","w":2671},"A":{"d":"360,0r-327,0r1474,-2843r451,0r1474,2843r-344,0r-364,-713r-1999,0xm885,-999r1687,0r-843,-1639","w":3465},"B":{"d":"3060,-2081v0,-353,-194,-475,-578,-475r-1933,0r0,926r1933,0v385,-7,578,-80,578,-451xm3359,-2114v0,344,-137,536,-357,615v257,70,439,305,439,663v0,409,-146,649,-443,757v-146,53,-332,79,-557,79r-2187,0r0,-2843r2113,0v339,0,589,61,750,181v161,120,242,303,242,548xm3146,-836v0,-381,-225,-507,-615,-507r-1982,0r0,1056r2007,0v392,-2,590,-158,590,-549","w":3645},"C":{"d":"2466,8r-1245,0v-485,-2,-790,-104,-941,-418v-70,-146,-108,-346,-108,-598r0,-827v9,-483,116,-784,440,-935v152,-71,356,-105,609,-105r1245,0v688,0,1032,270,1032,811r-295,0v-3,-413,-295,-525,-733,-525r-1245,0v-366,3,-583,58,-689,297v-48,108,-69,261,-69,457r0,827v-3,389,94,619,397,693v95,24,216,36,361,36r1245,0v266,0,455,-42,566,-125v111,-83,167,-216,167,-399r295,0v-3,384,-144,608,-434,721v-153,60,-352,90,-598,90","w":3736},"D":{"d":"573,-287r1926,0v385,3,611,-90,663,-402v51,-301,25,-765,25,-1121v0,-358,-38,-571,-263,-679v-98,-47,-242,-67,-430,-67r-1921,0r0,2269xm279,-2843r2195,0v531,-4,843,120,952,529v85,319,56,845,56,1257v0,485,-89,789,-402,949v-144,74,-347,108,-606,108r-2195,0r0,-2843","w":3695},"E":{"d":"246,0r0,-2843r2519,0r0,287r-2224,0r0,942r2166,0r0,287r-2166,0r0,1040r2224,0r0,287r-2519,0","w":3023},"F":{"d":"246,0r0,-2843r2519,0r0,287r-2224,0r0,942r2166,0r0,287r-2166,0r0,1327r-295,0","w":3023},"G":{"d":"2499,0r-1254,0v-531,3,-870,-145,-991,-540v-36,-120,-57,-265,-57,-435r0,-860v9,-485,114,-787,438,-937v151,-70,355,-103,610,-103r1254,0v345,0,602,67,771,200v169,133,253,337,253,611r-295,0v-4,-172,-62,-303,-172,-392v-110,-89,-297,-133,-562,-133r-1253,0v-364,3,-577,58,-679,297v-45,106,-70,260,-70,457r0,860v9,337,72,534,305,627v106,43,255,61,444,61r1253,0v350,-6,546,-30,657,-249v54,-107,73,-320,68,-529r-1396,0r0,-287r1708,0v3,465,0,894,-209,1118v-173,185,-440,234,-823,234","w":3695},"H":{"d":"279,0r0,-2843r294,0r0,1229r2524,0r0,-1229r294,0r0,2843r-294,0r0,-1319r-2524,0r0,1319r-294,0","w":3604},"I":{"d":"713,0r-295,0r0,-2843r295,0r0,2843","w":1155},"J":{"d":"156,-950r295,0v-11,244,24,420,170,528v114,85,308,135,583,135r766,0v269,-4,460,-51,576,-142v116,-91,174,-237,174,-439r0,-1975r295,0r0,1827v-4,473,-94,756,-410,906v-151,72,-362,110,-631,110r-770,0v-369,-4,-635,-69,-800,-194v-165,-125,-248,-306,-248,-543r0,-213","w":3203},"K":{"d":"205,0r0,-2843r295,0r0,1217r475,0r1798,-1221r516,0r-2007,1360r2056,1487r-516,0r-1835,-1339r-487,0r0,1339r-295,0","w":3387},"L":{"d":"279,0r0,-2843r294,0r0,2556r2143,0r0,287r-2437,0","w":2933},"M":{"d":"4375,-2843r-631,0r-1434,2425r-1442,-2425r-630,0r0,2843r294,0r0,-2613r168,0r1532,2613r152,0r1532,-2613r164,0r0,2613r295,0r0,-2843","w":4620},"N":{"d":"238,0r0,-2843r655,0r2187,2548r0,-2548r295,0r0,2843r-426,0r-2253,-2621r-164,0r0,2621r-294,0","w":3604},"O":{"d":"3244,-1884v-10,-349,-55,-549,-287,-646v-101,-42,-251,-59,-446,-59r-1245,0v-347,3,-559,58,-673,279v-53,102,-85,245,-85,426r0,909v2,372,104,592,404,657v94,21,212,31,354,31r1245,0v205,0,359,-17,459,-57v234,-93,274,-282,274,-631r0,-909xm3539,-975v-2,526,-115,847,-536,935v-126,27,-289,40,-488,40r-1245,0v-527,1,-874,-120,-996,-514v-38,-124,-61,-277,-61,-461r0,-885v3,-524,146,-844,554,-958v134,-37,301,-57,503,-57r1245,0v470,5,755,80,910,389v74,147,114,356,114,626r0,885","w":3736},"P":{"d":"254,-4r0,-2839r1917,0v448,2,740,92,897,366v128,225,136,780,3,997v-69,112,-169,194,-311,238v-142,44,-337,66,-585,66r-1626,0r0,1172r-295,0xm2875,-1966v0,-436,-154,-590,-585,-590r-1741,0r0,1094r1712,0v161,0,285,-11,371,-38v190,-60,243,-200,243,-466","w":3334},"Q":{"d":"3244,-975r0,-885v-6,-283,-22,-476,-155,-598v-128,-118,-308,-122,-578,-122r-1245,0v-394,-2,-646,82,-728,380v-25,90,-38,203,-38,340r0,885v-4,372,108,583,404,651v96,22,217,37,362,37r1237,0v140,0,380,-17,463,-65r-992,-639r180,-238r1033,672v38,-89,57,-229,57,-418xm3277,-164v-199,145,-382,164,-762,164r-1253,0v-474,-10,-775,-88,-940,-388v-77,-139,-117,-336,-117,-587r0,-885v11,-466,105,-746,423,-896v153,-71,365,-111,634,-111r1245,0v470,5,754,81,913,387v75,147,119,353,119,620r0,885v0,231,-30,423,-90,574r229,155r-164,246","w":3736},"R":{"d":"3006,-2077v-1,-297,-261,-475,-585,-475r-1864,0r0,1098r1843,0v411,-5,609,-191,606,-623xm2961,-696v-2,-340,-119,-471,-446,-471r-1958,0r0,1171r-295,0r0,-2843r2048,0v609,-1,991,240,991,816v0,382,-156,546,-401,684v101,22,186,90,254,204v68,114,102,271,102,471r0,664r-295,0r0,-696","w":3523},"S":{"d":"2613,-287v420,-2,664,-129,664,-524v0,-257,-74,-388,-269,-457v-99,-34,-237,-51,-415,-51r-1430,0v-455,-2,-794,-77,-901,-401v-74,-224,-46,-609,56,-782v146,-248,421,-340,829,-341r1433,0v598,-1,963,234,967,803r-295,0v-11,-245,-104,-382,-304,-456v-108,-40,-250,-60,-429,-60r-1368,0v-171,0,-303,19,-395,56v-184,74,-240,209,-240,460v0,239,69,337,270,392v105,28,258,42,459,42r1270,0v650,1,1080,156,1057,803v-14,385,-124,618,-404,727v-133,52,-309,76,-530,76r-1467,0v-565,-3,-919,-253,-925,-811r295,0v11,248,98,385,299,461v108,42,251,63,430,63r1343,0","w":3777},"T":{"d":"90,-2843r3064,0r0,287r-1389,0r0,2556r-295,0r0,-2556r-1380,0r0,-287","w":3244},"U":{"d":"2552,-287v451,-6,717,-148,717,-590r0,-1966r295,0r0,1860v0,261,-36,464,-110,605v-158,302,-440,378,-906,378r-1245,0v-477,-10,-781,-86,-945,-389v-76,-140,-112,-336,-112,-586r0,-1868r295,0r0,1983v3,280,85,429,299,508v110,41,264,65,463,65r1249,0","w":3777},"V":{"d":"3056,-2843r-1311,2524r-62,0r-1310,-2524r-344,0r1523,2843r316,0r1532,-2843r-344,0","w":3449},"W":{"d":"2425,-2843r-991,2540r-66,0r-1008,-2540r-327,0r1163,2843r418,0r975,-2515r983,2515r418,0r1163,-2843r-328,0r-1008,2540r-65,0r-991,-2540r-336,0","w":5243},"X":{"d":"2892,-2843r-1196,1205r-1196,-1205r-373,0r1315,1336r-1508,1507r394,0r1368,-1368r1368,1368r393,0r-1507,-1507r1335,-1336r-393,0","w":3514},"Y":{"d":"2896,-2847r-1254,1254r-1253,-1254r-389,0r1483,1487r0,1360r319,0r0,-1360r1483,-1487r-389,0","w":3293},"Z":{"d":"197,-2843r2773,0r0,222r-2302,2334r2363,0r0,287r-2834,0r0,-229r2318,-2327r-2318,0r0,-287","w":3244},"[":{"d":"262,-3121r574,0r0,155r-295,0r0,3269r315,0r0,156r-594,0r0,-3580","w":1073},"\\":{"d":"57,-2982r320,0r909,3351r-311,0","w":1294},"]":{"d":"795,-3121r0,3580r-594,0r0,-160r315,0r0,-3265r-295,0r0,-155r574,0","w":1073},"^":{"d":"115,-2163r598,-573r164,0r598,573r-132,0r-548,-401r-549,401r-131,0","w":1606},"_":{"d":"8,8r1589,0r0,156r-1589,0r0,-156","w":1606},"`":{"d":"319,-2982r631,557r-114,98r-689,-458","w":1155},"a":{"d":"2376,-1356v-5,-272,-188,-422,-492,-422r-782,0v-209,0,-347,31,-407,98v-85,94,-100,117,-93,238r-303,0r0,-74r-8,0v0,-41,15,-101,45,-178v30,-77,101,-151,210,-222v109,-71,270,-107,482,-107r889,0v508,0,762,237,762,712r0,1311r-295,0r0,-164v-19,27,-58,61,-118,102v-60,41,-141,62,-243,62r-1146,0v-453,0,-680,-172,-680,-516r0,-246v0,-146,52,-262,156,-347v104,-85,262,-128,474,-128r1180,0v140,0,235,20,285,60v50,40,79,73,84,100r0,-279xm1933,-254v293,-1,443,-94,443,-369v0,-245,-148,-368,-443,-368r-999,0v-175,0,-290,27,-352,71v-92,66,-90,212,-90,371v0,97,32,171,97,221v65,50,180,74,345,74r999,0","w":2912},"b":{"d":"2753,-795v-12,532,-306,803,-861,803r-794,0v-180,0,-316,-29,-410,-86v-94,-57,-154,-105,-180,-143r0,221r-295,0r0,-2843r295,0r0,1041v23,-39,80,-87,170,-144v90,-57,231,-86,420,-86r794,0v548,3,846,264,861,795r0,442xm492,-1016r8,221v4,352,254,557,639,557r647,0v442,-1,672,-143,672,-557r0,-442v0,-366,-224,-549,-672,-549r-656,0v-385,-7,-630,196,-630,549v0,49,-10,177,-8,221","w":2982},"c":{"d":"467,-745v-8,306,230,507,528,507r901,0v265,8,450,-99,521,-255v37,-81,44,-134,41,-220r295,0v5,183,-47,314,-169,487v-111,157,-341,234,-683,234r-910,0v-522,6,-819,-259,-819,-753r0,-508v11,-502,321,-779,844,-779r885,0r8,9v233,0,412,42,538,127v126,85,209,178,247,279v44,117,62,193,59,298r-295,0v4,-123,-31,-209,-113,-319v-74,-100,-223,-148,-444,-148r-885,0v-350,0,-549,180,-549,533r0,508","w":2933},"d":{"d":"188,-1016v0,-244,14,-466,107,-636v130,-238,389,-380,762,-380r794,0v186,0,325,29,416,86v91,57,149,105,174,144r0,-1041r295,0r0,2843r-295,0r0,-197v-37,34,-106,77,-207,128v-101,51,-229,77,-383,77r-794,0v-548,-7,-860,-263,-860,-803v0,-63,-9,-168,-9,-221xm1810,-246v388,7,639,-198,639,-549r0,-442v-12,-350,-251,-549,-639,-549r-655,0v-430,-1,-663,153,-663,549r0,442v4,403,238,548,663,549r655,0","w":2982},"e":{"d":"2490,-1237v-3,-347,-198,-549,-544,-549r-926,0v-327,8,-515,217,-520,549r1990,0xm2023,-238v287,3,477,-136,467,-409r295,0v4,268,-107,451,-300,561v-109,62,-248,94,-421,94r-991,0v-556,2,-868,-233,-868,-762r0,-532v7,-298,175,-523,399,-640v132,-69,284,-106,461,-106r852,0v277,0,491,68,642,205v151,137,226,306,226,508r0,328r-2285,0r0,196v0,371,187,557,561,557r962,0","w":2982},"f":{"d":"1057,-2589v-327,1,-444,197,-434,549r868,0r0,246r-868,0r0,1794r-295,0r0,-1794r-254,0r0,-246r254,0v-14,-531,226,-805,729,-803r426,0r0,254r-426,0","w":1606},"g":{"d":"221,-1081v-1,-28,8,-152,8,-181v0,-507,285,-761,828,-761r852,0v185,0,323,28,412,83v89,55,146,101,169,138r0,-221r295,0r0,2236v0,437,-287,655,-860,655r-819,0v-304,1,-553,-88,-683,-255v-63,-81,-95,-176,-95,-285r319,0v0,81,41,150,123,208v82,58,204,87,365,87r770,0v234,2,424,-70,519,-195v44,-59,66,-123,66,-190r0,-476v-85,156,-304,238,-565,238r-844,0v-533,-13,-843,-217,-852,-745xm1868,-246v383,8,631,-203,631,-549r0,-442v-13,-350,-242,-541,-631,-541r-672,0v-448,3,-672,126,-672,541r0,442v4,407,244,549,672,549r672,0","w":3023},"h":{"d":"1106,-1778v-350,-2,-590,198,-590,549r0,1229r-295,0r0,-2843r295,0r0,1106v93,-185,292,-286,590,-286r786,0v561,-11,877,283,877,794r0,1229r-295,0r0,-1229v5,-349,-235,-549,-582,-549r-786,0","w":2982},"i":{"d":"319,0r0,-2023r295,0r0,2023r-295,0xm319,-2843r295,0r0,295r-295,0r0,-295","w":934},"j":{"d":"451,-2019r294,-4r0,2351v0,217,-73,361,-220,432v-158,76,-292,111,-451,108r0,-295v234,10,377,-85,377,-344r0,-2248xm451,-2843r294,0r0,295r-294,0r0,-295","w":1155},"k":{"d":"238,0r0,-2843r294,0r0,1586r336,0r1049,-762r471,0r-1278,901r1384,1122r-426,0r-1220,-1008r-316,0r0,1004r-294,0","w":2540},"l":{"d":"369,0r0,-2843r295,0r0,2843r-295,0","w":983},"m":{"d":"2163,-1229v-6,-377,-274,-549,-656,-549v-264,0,-542,-10,-713,80v-172,91,-302,237,-302,453r0,1245r-295,0r0,-2023r303,0r0,311v19,-52,76,-116,170,-194v94,-78,250,-117,469,-117v275,0,607,-14,801,56v201,72,308,182,378,345v25,-67,65,-151,134,-214v127,-116,350,-187,628,-187r459,0v360,-3,642,136,781,351v69,107,104,225,104,353r0,1319r-295,0r0,-1262v-4,-358,-276,-520,-664,-516r-303,0v-418,1,-704,149,-704,557r0,1221r-295,0r0,-1229","w":4616},"n":{"d":"1122,-1778v-343,-4,-590,214,-590,557r0,1217r-294,0r0,-2019r294,0r0,327v14,-55,63,-122,147,-204v84,-82,232,-123,443,-123r779,0v574,0,884,289,884,843r0,1176r-295,0r0,-1217v4,-348,-240,-557,-589,-557r-779,0","w":3023},"o":{"d":"172,-1016r8,-221v15,-522,312,-795,885,-795r811,0v564,-2,870,267,885,795r0,442v-16,526,-325,803,-885,803r-811,0v-582,0,-885,-268,-885,-803v0,-50,-10,-176,-8,-221xm1085,-1786v-398,-3,-610,161,-610,549r0,442v0,371,203,557,610,557r770,0v407,0,611,-186,611,-557r0,-442v0,-365,-233,-549,-611,-549r-770,0","w":2933},"p":{"d":"2753,-786v-16,523,-310,794,-861,794r-794,0v-188,0,-327,-29,-418,-86v-91,-57,-149,-105,-172,-143r0,1048r-295,0r0,-2850r295,0r0,221v23,-37,79,-82,166,-138v90,-58,240,-83,424,-83r794,0v555,-2,844,273,861,794r0,443xm1130,-1778v-385,-7,-630,196,-630,549v0,46,-9,181,-8,221r8,222v4,346,245,548,626,548r660,0v426,-2,672,-140,672,-548r0,-443v0,-366,-224,-549,-672,-549r-656,0","w":2933},"q":{"d":"221,-1233v10,-513,317,-790,860,-790r811,0v261,-6,465,100,574,221r0,-221r295,0r0,2850r-295,0r0,-1024v-23,34,-81,77,-172,128v-91,51,-230,77,-418,77r-795,0v-553,0,-850,-259,-860,-799r0,-442xm1843,-238v381,8,631,-206,631,-548r0,-443v-11,-348,-247,-549,-631,-549r-655,0v-431,4,-672,132,-672,549r0,443v0,365,224,548,672,548r655,0","w":2982},"r":{"d":"541,0r-295,0r0,-2023r295,0r0,262v15,-44,63,-99,141,-164v78,-65,211,-98,399,-98r574,0v461,-6,739,203,831,543v28,102,31,173,29,276r-295,0v3,-144,-35,-254,-120,-389v-78,-124,-237,-185,-474,-185r-524,0v-220,-1,-398,106,-488,243v-49,73,-73,151,-73,232r0,1303","w":2789},"s":{"d":"877,-1786v-222,-1,-381,78,-385,279r0,82v0,185,128,278,385,278r1179,0v501,7,722,190,697,623v-22,369,-323,532,-730,532r-1122,0v-469,0,-704,-169,-704,-508r0,-147r295,0v0,102,-4,207,34,271v24,41,68,75,137,100v69,25,172,38,308,38r1040,0v143,0,254,-25,331,-75v102,-66,121,-152,116,-301v-7,-200,-164,-287,-385,-287r-1180,0v-492,-6,-711,-185,-688,-606v20,-371,315,-525,721,-525r958,0v585,0,877,167,877,500r0,139r-295,0r0,-131v0,-63,-38,-122,-114,-178v-76,-56,-229,-84,-460,-84r-1015,0","w":2982},"t":{"d":"1040,-246v-273,0,-434,-180,-434,-475r0,-1065r1528,0r0,-246r-1528,0r0,-393r-295,0r0,393r-254,0r0,246r254,0r0,1020v-5,490,256,764,729,766r422,0v343,0,574,-78,688,-238v126,-178,179,-347,172,-581r-294,0v-1,243,-42,389,-206,493v-157,99,-510,80,-782,80","w":2400},"u":{"d":"1901,-238v311,3,589,-191,589,-507r0,-1278r295,0r0,2023r-286,0r0,-246v-31,42,-96,94,-195,158v-99,64,-234,96,-403,96r-795,0v-590,0,-885,-268,-885,-803r0,-1228r295,0r0,1253v-2,353,231,532,590,532r795,0","w":2982},"v":{"d":"2245,-2023r-918,1704r-61,0r-918,-1704r-328,0r1119,2023r315,0r1118,-2023r-327,0","w":2580},"w":{"d":"250,-2015r676,1696r69,0r660,-1696r360,0r660,1696r69,0r676,-1696r316,0r-824,2015r-385,0r-692,-1782r-692,1782r-385,0r-824,-2015r316,0","w":3715},"x":{"d":"180,-2023r361,0r762,745r745,-745r360,0r-933,925r1097,1098r-368,0r-910,-909r-917,909r-352,0r1089,-1098","w":2609},"y":{"d":"8,-2023r307,0r942,1736r58,0r745,-1736r307,0r-1015,2289v-165,375,-315,603,-836,602r-98,0r0,-245v173,2,336,5,436,-71v67,-50,126,-112,170,-192v44,-80,100,-200,168,-360r-74,0","w":2396},"z":{"d":"180,-2023r2142,0r0,221r-1712,1556r1737,0r0,246r-2183,0r0,-229r1720,-1549r-1704,0r0,-245","w":2580},"{":{"d":"1016,541v-404,8,-623,-206,-623,-607r0,-794v0,-97,-33,-181,-98,-252v-65,-71,-120,-121,-164,-150v44,-27,99,-76,164,-146v65,-70,98,-156,98,-255r0,-795v0,-415,208,-622,623,-622r0,229v-275,0,-393,126,-393,393r0,795v0,113,-31,203,-92,269v-61,66,-113,110,-154,132v41,30,93,81,154,154v61,73,92,155,92,248r0,794v2,270,119,384,393,385r0,222","w":1204},"|":{"d":"238,-3031r229,0r0,3580r-229,0r0,-3580","w":709},"}":{"d":"582,-2458v-3,-267,-111,-393,-385,-393v-6,0,-9,-55,-9,-164v-1,-21,6,-51,9,-65v409,0,614,207,614,622r0,795v0,98,33,182,101,253v68,71,124,121,169,148v-45,29,-101,78,-169,150v-68,72,-101,156,-101,252r0,794v3,395,-221,614,-614,607v-13,0,-11,-186,0,-222v268,-1,385,-118,385,-385r0,-794v0,-92,31,-175,92,-248v61,-73,112,-124,153,-154v-41,-22,-92,-66,-153,-133v-61,-67,-92,-156,-92,-268r0,-795","w":1204},"~":{"d":"614,-1417r-278,0v13,-70,60,-157,143,-261v83,-104,232,-157,447,-157v161,0,234,41,335,108v96,64,126,98,263,105r8,8v99,0,165,-26,199,-77v34,-51,52,-94,55,-128r270,0v-4,31,-20,79,-48,142v-28,63,-83,126,-166,189v-83,63,-200,95,-351,95r-8,-8v-280,-3,-346,-213,-639,-213v-83,0,-140,25,-173,74v-33,49,-52,90,-57,123","w":2269},"\u0410":{"d":"360,0r-327,0r1474,-2843r451,0r1474,2843r-344,0r-364,-713r-1999,0xm885,-999r1687,0r-843,-1639","w":3465},"\u00c0":{"d":"360,0r-327,0r1474,-2843r451,0r1474,2843r-344,0r-364,-713r-1999,0xm885,-999r1687,0r-843,-1639","w":3465},"\u0411":{"d":"254,-2843r0,2843r2027,0v453,2,745,-108,845,-446v72,-244,53,-697,-56,-881v-158,-265,-450,-340,-895,-340r-1626,0r0,-889r2380,0r0,-287r-2675,0xm549,-1380r1712,0v285,2,465,47,557,224v74,143,75,528,-2,668v-92,168,-253,201,-526,201r-1741,0r0,-1093","w":3334},"\u00c1":{"d":"254,-2843r0,2843r2027,0v453,2,745,-108,845,-446v72,-244,53,-697,-56,-881v-158,-265,-450,-340,-895,-340r-1626,0r0,-889r2380,0r0,-287r-2675,0xm549,-1380r1712,0v285,2,465,47,557,224v74,143,75,528,-2,668v-92,168,-253,201,-526,201r-1741,0r0,-1093","w":3334},"\u0412":{"d":"3060,-2081v0,-353,-194,-475,-578,-475r-1933,0r0,926r1933,0v385,-7,578,-80,578,-451xm3359,-2114v0,344,-137,536,-357,615v257,70,439,305,439,663v0,409,-146,649,-443,757v-146,53,-332,79,-557,79r-2187,0r0,-2843r2113,0v339,0,589,61,750,181v161,120,242,303,242,548xm3146,-836v0,-381,-225,-507,-615,-507r-1982,0r0,1056r2007,0v392,-2,590,-158,590,-549","w":3645},"\u00c2":{"d":"3060,-2081v0,-353,-194,-475,-578,-475r-1933,0r0,926r1933,0v385,-7,578,-80,578,-451xm3359,-2114v0,344,-137,536,-357,615v257,70,439,305,439,663v0,409,-146,649,-443,757v-146,53,-332,79,-557,79r-2187,0r0,-2843r2113,0v339,0,589,61,750,181v161,120,242,303,242,548xm3146,-836v0,-381,-225,-507,-615,-507r-1982,0r0,1056r2007,0v392,-2,590,-158,590,-549","w":3645},"\u0413":{"d":"279,-2843r0,2843r294,0r0,-2556r2143,0r0,-287r-2437,0","w":2933},"\u00c3":{"d":"279,-2843r0,2843r294,0r0,-2556r2143,0r0,-287r-2437,0","w":2933},"\u0414":{"d":"999,-1094v-1,351,-95,671,-311,807r2527,0r0,-2265r-2216,0r0,1458xm336,-287v226,-165,369,-362,369,-729r0,-1823r2805,0r0,2552r238,0r0,1057r-283,0r0,-770r-3002,0r0,770r-279,0r0,-1057r152,0","w":3895},"\u00c4":{"d":"999,-1094v-1,351,-95,671,-311,807r2527,0r0,-2265r-2216,0r0,1458xm336,-287v226,-165,369,-362,369,-729r0,-1823r2805,0r0,2552r238,0r0,1057r-283,0r0,-770r-3002,0r0,770r-279,0r0,-1057r152,0","w":3895},"\u0415":{"d":"246,0r0,-2843r2511,0r0,287r-2216,0r0,942r2166,0r0,287r-2166,0r0,1040r2224,0r0,287r-2519,0","w":3023},"\u00c5":{"d":"246,0r0,-2843r2511,0r0,287r-2216,0r0,942r2166,0r0,287r-2166,0r0,1040r2224,0r0,287r-2519,0","w":3023},"\u0416":{"d":"2724,0r295,0r0,-1384r524,0r1651,1384r463,0r-1872,-1536r1835,-1311r-475,0r-1651,1176r-475,0r0,-1172r-295,0r0,1172r-475,0r-1651,-1176r-475,0r1835,1311r-1872,1536r463,0r1655,-1384r520,0r0,1384","w":5767},"\u00c6":{"d":"2724,0r295,0r0,-1384r524,0r1651,1384r463,0r-1872,-1536r1835,-1311r-475,0r-1651,1176r-475,0r0,-1172r-295,0r0,1172r-475,0r-1651,-1176r-475,0r1835,1311r-1872,1536r463,0r1655,-1384r520,0r0,1384","w":5767},"\u0417":{"d":"3097,-1483v292,108,401,299,401,705v0,389,-141,601,-439,705v-154,54,-357,81,-610,81r-1245,0v-628,0,-1035,-191,-1032,-811r295,0v0,183,56,316,167,399v111,83,300,125,566,125r1245,0v195,0,346,-16,453,-49v222,-69,305,-220,305,-516v0,-319,-160,-479,-479,-479r-1757,0r0,-287r1675,0v348,5,505,-83,500,-426v-4,-282,-75,-427,-288,-500v-106,-36,-256,-53,-450,-53r-1204,0v-181,0,-325,21,-434,63v-200,75,-294,211,-299,462r-295,0v0,-541,344,-811,1032,-811r1204,0v441,-3,765,119,922,377v72,119,107,260,107,421v0,347,-103,514,-340,594","w":3736},"\u00c7":{"d":"3097,-1483v292,108,401,299,401,705v0,389,-141,601,-439,705v-154,54,-357,81,-610,81r-1245,0v-628,0,-1035,-191,-1032,-811r295,0v0,183,56,316,167,399v111,83,300,125,566,125r1245,0v195,0,346,-16,453,-49v222,-69,305,-220,305,-516v0,-319,-160,-479,-479,-479r-1757,0r0,-287r1675,0v348,5,505,-83,500,-426v-4,-282,-75,-427,-288,-500v-106,-36,-256,-53,-450,-53r-1204,0v-181,0,-325,21,-434,63v-200,75,-294,211,-299,462r-295,0v0,-541,344,-811,1032,-811r1204,0v441,-3,765,119,922,377v72,119,107,260,107,421v0,347,-103,514,-340,594","w":3736},"\u0418":{"d":"3375,0r0,-2843r-569,0r-2249,2622r-25,0r0,-2622r-294,0r0,2843r479,0r2253,-2621r110,0r0,2621r295,0","w":3604},"\u00c8":{"d":"3375,0r0,-2843r-569,0r-2249,2622r-25,0r0,-2622r-294,0r0,2843r479,0r2253,-2621r110,0r0,2621r295,0","w":3604},"\u0419":{"d":"3375,0r0,-2843r-569,0r-2249,2622r-25,0r0,-2622r-294,0r0,2843r479,0r2253,-2621r110,0r0,2621r295,0xm1540,-2945v284,0,604,7,788,-79v244,-115,382,-296,396,-601r-295,0v0,53,-11,114,-40,178v-70,156,-257,256,-521,256r-324,0v-219,0,-366,-48,-444,-144v-78,-96,-117,-193,-117,-290r-295,0v35,443,349,680,852,680","w":3604},"\u00c9":{"d":"3375,0r0,-2843r-569,0r-2249,2622r-25,0r0,-2622r-294,0r0,2843r479,0r2253,-2621r110,0r0,2621r295,0xm1540,-2945v284,0,604,7,788,-79v244,-115,382,-296,396,-601r-295,0v0,53,-11,114,-40,178v-70,156,-257,256,-521,256r-324,0v-219,0,-366,-48,-444,-144v-78,-96,-117,-193,-117,-290r-295,0v35,443,349,680,852,680","w":3604},"\u041a":{"d":"205,0r0,-2843r295,0r0,1172r475,0r1933,-1172r500,0r-2122,1295r2105,1548r-507,0r-1897,-1384r-487,0r0,1384r-295,0","w":3465},"\u00ca":{"d":"205,0r0,-2843r295,0r0,1172r475,0r1933,-1172r500,0r-2122,1295r2105,1548r-507,0r-1897,-1384r-487,0r0,1384r-295,0","w":3465},"\u041b":{"d":"238,-287v198,-8,315,-144,315,-385r0,-2171r2908,0r0,2843r-295,0r0,-2548r-2318,0r0,1876v7,509,-254,695,-766,672r0,-287r156,0","w":3674},"\u00cb":{"d":"238,-287v198,-8,315,-144,315,-385r0,-2171r2908,0r0,2843r-295,0r0,-2548r-2318,0r0,1876v7,509,-254,695,-766,672r0,-287r156,0","w":3674},"\u041c":{"d":"4375,-2843r-631,0r-1434,2425r-1442,-2425r-630,0r0,2843r294,0r0,-2613r168,0r1532,2613r152,0r1532,-2613r164,0r0,2613r295,0r0,-2843","w":4620},"\u00cc":{"d":"4375,-2843r-631,0r-1434,2425r-1442,-2425r-630,0r0,2843r294,0r0,-2613r168,0r1532,2613r152,0r1532,-2613r164,0r0,2613r295,0r0,-2843","w":4620},"\u041d":{"d":"279,0r0,-2843r294,0r0,1229r2524,0r0,-1229r294,0r0,2843r-294,0r0,-1319r-2524,0r0,1319r-294,0","w":3604},"\u00cd":{"d":"279,0r0,-2843r294,0r0,1229r2524,0r0,-1229r294,0r0,2843r-294,0r0,-1319r-2524,0r0,1319r-294,0","w":3604},"\u041e":{"d":"3244,-1884v-10,-349,-55,-549,-287,-646v-101,-42,-251,-59,-446,-59r-1245,0v-347,3,-559,58,-673,279v-53,102,-85,245,-85,426r0,909v2,372,104,592,404,657v94,21,212,31,354,31r1245,0v205,0,359,-17,459,-57v234,-93,274,-282,274,-631r0,-909xm3539,-975v-2,526,-115,847,-536,935v-126,27,-289,40,-488,40r-1245,0v-527,1,-874,-120,-996,-514v-38,-124,-61,-277,-61,-461r0,-885v3,-524,146,-844,554,-958v134,-37,301,-57,503,-57r1245,0v470,5,755,80,910,389v74,147,114,356,114,626r0,885","w":3736},"\u00ce":{"d":"3244,-1884v-10,-349,-55,-549,-287,-646v-101,-42,-251,-59,-446,-59r-1245,0v-347,3,-559,58,-673,279v-53,102,-85,245,-85,426r0,909v2,372,104,592,404,657v94,21,212,31,354,31r1245,0v205,0,359,-17,459,-57v234,-93,274,-282,274,-631r0,-909xm3539,-975v-2,526,-115,847,-536,935v-126,27,-289,40,-488,40r-1245,0v-527,1,-874,-120,-996,-514v-38,-124,-61,-277,-61,-461r0,-885v3,-524,146,-844,554,-958v134,-37,301,-57,503,-57r1245,0v470,5,755,80,910,389v74,147,114,356,114,626r0,885","w":3736},"\u041f":{"d":"279,0r0,-2843r3112,0r0,2843r-294,0r0,-2548r-2524,0r0,2548r-294,0","w":3604},"\u00cf":{"d":"279,0r0,-2843r3112,0r0,2843r-294,0r0,-2548r-2524,0r0,2548r-294,0","w":3604},"\u0420":{"d":"254,-4r0,-2839r1917,0v448,2,740,92,897,366v128,225,136,780,3,997v-69,112,-169,194,-311,238v-142,44,-337,66,-585,66r-1626,0r0,1172r-295,0xm2875,-1966v0,-436,-154,-590,-585,-590r-1741,0r0,1094r1712,0v161,0,285,-11,371,-38v190,-60,243,-200,243,-466","w":3334},"\u00d0":{"d":"254,-4r0,-2839r1917,0v448,2,740,92,897,366v128,225,136,780,3,997v-69,112,-169,194,-311,238v-142,44,-337,66,-585,66r-1626,0r0,1172r-295,0xm2875,-1966v0,-436,-154,-590,-585,-590r-1741,0r0,1094r1712,0v161,0,285,-11,371,-38v190,-60,243,-200,243,-466","w":3334},"\u0421":{"d":"2466,8r-1245,0v-485,-2,-790,-104,-941,-418v-70,-146,-108,-346,-108,-598r0,-827v9,-483,116,-784,440,-935v152,-71,356,-105,609,-105r1245,0v688,0,1032,270,1032,811r-295,0v-3,-413,-295,-525,-733,-525r-1245,0v-366,3,-583,58,-689,297v-48,108,-69,261,-69,457r0,827v-3,389,94,619,397,693v95,24,216,36,361,36r1245,0v266,0,455,-42,566,-125v111,-83,167,-216,167,-399r295,0v-3,384,-144,608,-434,721v-153,60,-352,90,-598,90","w":3736},"\u00d1":{"d":"2466,8r-1245,0v-485,-2,-790,-104,-941,-418v-70,-146,-108,-346,-108,-598r0,-827v9,-483,116,-784,440,-935v152,-71,356,-105,609,-105r1245,0v688,0,1032,270,1032,811r-295,0v-3,-413,-295,-525,-733,-525r-1245,0v-366,3,-583,58,-689,297v-48,108,-69,261,-69,457r0,827v-3,389,94,619,397,693v95,24,216,36,361,36r1245,0v266,0,455,-42,566,-125v111,-83,167,-216,167,-399r295,0v-3,384,-144,608,-434,721v-153,60,-352,90,-598,90","w":3736},"\u0422":{"d":"90,-2843r3064,0r0,287r-1389,0r0,2556r-295,0r0,-2556r-1380,0r0,-287","w":3244},"\u00d2":{"d":"90,-2843r3064,0r0,287r-1389,0r0,2556r-295,0r0,-2556r-1380,0r0,-287","w":3244},"\u0423":{"d":"2830,-2847r353,0r-1221,2028v-109,184,-202,328,-277,431v-184,248,-339,393,-755,388r-99,0r0,-287v227,4,401,-9,503,-123v41,-46,92,-114,149,-208r-1446,-2229r340,0r1274,1999","w":3232},"\u00d3":{"d":"2830,-2847r353,0r-1221,2028v-109,184,-202,328,-277,431v-184,248,-339,393,-755,388r-99,0r0,-287v227,4,401,-9,503,-123v41,-46,92,-114,149,-208r-1446,-2229r340,0r1274,1999","w":3232},"\u0424":{"d":"2109,-2335r-860,0v-379,1,-612,87,-707,367v-59,174,-50,470,-50,715v0,372,103,591,403,657v94,21,212,31,354,31r860,0r0,-1770xm2404,-2335r0,1770r865,0v353,-4,566,-46,684,-263v90,-165,73,-523,73,-798v0,-344,-86,-551,-321,-645v-110,-44,-255,-64,-436,-64r-865,0xm2109,-2875r295,0r0,254r861,0v494,0,809,124,957,445v68,147,99,338,99,570r0,353v-2,470,-114,751,-437,883v-152,62,-359,91,-619,91r-861,0r0,279r-295,0r0,-279r-860,0v-533,2,-866,-119,-995,-512v-66,-202,-62,-529,-61,-815v2,-523,146,-844,553,-958v134,-38,301,-57,503,-57r860,0r0,-254","w":4563},"\u00d4":{"d":"2109,-2335r-860,0v-379,1,-612,87,-707,367v-59,174,-50,470,-50,715v0,372,103,591,403,657v94,21,212,31,354,31r860,0r0,-1770xm2404,-2335r0,1770r865,0v353,-4,566,-46,684,-263v90,-165,73,-523,73,-798v0,-344,-86,-551,-321,-645v-110,-44,-255,-64,-436,-64r-865,0xm2109,-2875r295,0r0,254r861,0v494,0,809,124,957,445v68,147,99,338,99,570r0,353v-2,470,-114,751,-437,883v-152,62,-359,91,-619,91r-861,0r0,279r-295,0r0,-279r-860,0v-533,2,-866,-119,-995,-512v-66,-202,-62,-529,-61,-815v2,-523,146,-844,553,-958v134,-38,301,-57,503,-57r860,0r0,-254","w":4563},"\u0425":{"d":"2892,-2843r-1196,1205r-1196,-1205r-373,0r1315,1336r-1508,1507r394,0r1368,-1368r1368,1368r393,0r-1507,-1507r1335,-1336r-393,0","w":3514},"\u00d5":{"d":"2892,-2843r-1196,1205r-1196,-1205r-373,0r1315,1336r-1508,1507r394,0r1368,-1368r1368,1368r393,0r-1507,-1507r1335,-1336r-393,0","w":3514},"\u0426":{"d":"573,-295r2524,0r0,-2548r294,0r0,2548r238,0r0,1065r-278,0r0,-770r-3072,0r0,-2843r294,0r0,2548","w":3834},"\u00d6":{"d":"573,-295r2524,0r0,-2548r294,0r0,2548r238,0r0,1065r-278,0r0,-770r-3072,0r0,-2843r294,0r0,2548","w":3834},"\u0427":{"d":"2986,-2843r295,0r0,2843r-295,0r0,-1397v-125,165,-366,254,-721,254r-950,0v-477,-10,-781,-86,-945,-389v-76,-140,-112,-336,-112,-586r0,-729r295,0r0,844v3,280,86,423,299,501v110,40,264,64,463,64r950,0v297,1,504,-51,617,-204v47,-63,79,-147,104,-246r0,-955","w":3494},"\u00d7":{"d":"2986,-2843r295,0r0,2843r-295,0r0,-1397v-125,165,-366,254,-721,254r-950,0v-477,-10,-781,-86,-945,-389v-76,-140,-112,-336,-112,-586r0,-729r295,0r0,844v3,280,86,423,299,501v110,40,264,64,463,64r950,0v297,1,504,-51,617,-204v47,-63,79,-147,104,-246r0,-955","w":3494},"\u0428":{"d":"311,-2843r295,0r0,2556r1708,0r0,-2556r295,0r0,2556r1708,0r0,-2556r295,0r0,2843r-4301,0r0,-2843","w":4927},"\u00d8":{"d":"311,-2843r295,0r0,2556r1708,0r0,-2556r295,0r0,2556r1708,0r0,-2556r295,0r0,2843r-4301,0r0,-2843","w":4927},"\u0429":{"d":"311,-2843r295,0r0,2556r1708,0r0,-2556r295,0r0,2556r1708,0r0,-2556r295,0r0,2556r242,0r0,1065r-283,0r0,-778r-4260,0r0,-2843","w":4927},"\u00d9":{"d":"311,-2843r295,0r0,2556r1708,0r0,-2556r295,0r0,2556r1708,0r0,-2556r295,0r0,2556r242,0r0,1065r-283,0r0,-778r-4260,0r0,-2843","w":4927},"\u042a":{"d":"999,-2843r-933,0r0,287r639,0r0,2556r2027,0v453,2,744,-108,844,-446v72,-244,55,-697,-54,-881v-158,-265,-451,-340,-896,-340r-1627,0r0,-1176xm999,-1380r1713,0v285,2,463,47,556,224v75,142,77,528,0,668v-92,169,-254,201,-528,201r-1741,0r0,-1093","w":3785},"\u00da":{"d":"999,-2843r-933,0r0,287r639,0r0,2556r2027,0v453,2,744,-108,844,-446v72,-244,55,-697,-54,-881v-158,-265,-451,-340,-896,-340r-1627,0r0,-1176xm999,-1380r1713,0v285,2,463,47,556,224v75,142,77,528,0,668v-92,169,-254,201,-528,201r-1741,0r0,-1093","w":3785},"\u042b":{"d":"254,-2843r0,2843r2027,0v453,2,745,-108,845,-446v72,-244,53,-697,-56,-881v-158,-265,-450,-340,-895,-340r-1626,0r0,-1176r-295,0xm549,-1380r1712,0v285,2,465,47,557,224v74,143,75,528,-2,668v-92,168,-253,201,-526,201r-1741,0r0,-1093xm3953,0r-295,0r0,-2843r295,0r0,2843","w":4211},"\u00db":{"d":"254,-2843r0,2843r2027,0v453,2,745,-108,845,-446v72,-244,53,-697,-56,-881v-158,-265,-450,-340,-895,-340r-1626,0r0,-1176r-295,0xm549,-1380r1712,0v285,2,465,47,557,224v74,143,75,528,-2,668v-92,168,-253,201,-526,201r-1741,0r0,-1093xm3953,0r-295,0r0,-2843r295,0r0,2843","w":4211},"\u042c":{"d":"254,-2843r0,2843r2027,0v453,2,745,-108,845,-446v72,-244,53,-697,-56,-881v-158,-265,-450,-340,-895,-340r-1626,0r0,-1176r-295,0xm549,-1380r1712,0v285,2,465,47,557,224v74,143,75,528,-2,668v-92,168,-253,201,-526,201r-1741,0r0,-1093","w":3334},"\u00dc":{"d":"254,-2843r0,2843r2027,0v453,2,745,-108,845,-446v72,-244,53,-697,-56,-881v-158,-265,-450,-340,-895,-340r-1626,0r0,-1176r-295,0xm549,-1380r1712,0v285,2,465,47,557,224v74,143,75,528,-2,668v-92,168,-253,201,-526,201r-1741,0r0,-1093","w":3334},"\u042d":{"d":"1204,8v-628,0,-1035,-191,-1032,-811r295,0v0,183,56,316,167,399v111,83,300,125,566,125r1245,0v360,-3,573,-58,687,-287v80,-160,72,-491,71,-757r-2458,0r0,-287r2458,0v3,-246,-2,-538,-69,-682v-110,-237,-324,-297,-689,-297r-1245,0v-181,0,-325,21,-434,63v-200,75,-294,211,-299,462r-295,0v0,-541,344,-811,1032,-811r1245,0v484,1,793,115,941,435v70,150,108,353,108,605r0,827v-8,480,-115,772,-438,917v-151,67,-355,99,-611,99r-1245,0","w":3736},"\u00dd":{"d":"1204,8v-628,0,-1035,-191,-1032,-811r295,0v0,183,56,316,167,399v111,83,300,125,566,125r1245,0v360,-3,573,-58,687,-287v80,-160,72,-491,71,-757r-2458,0r0,-287r2458,0v3,-246,-2,-538,-69,-682v-110,-237,-324,-297,-689,-297r-1245,0v-181,0,-325,21,-434,63v-200,75,-294,211,-299,462r-295,0v0,-541,344,-811,1032,-811r1245,0v484,1,793,115,941,435v70,150,108,353,108,605r0,827v-8,480,-115,772,-438,917v-151,67,-355,99,-611,99r-1245,0","w":3736},"\u042e":{"d":"4379,-1884v-10,-346,-56,-550,-288,-646v-102,-42,-251,-59,-446,-59r-1245,0v-346,2,-558,59,-672,277v-52,100,-86,244,-86,428r0,909v5,372,102,591,404,657v94,21,212,31,354,31r1245,0v205,0,359,-17,459,-57v233,-93,275,-285,275,-631r0,-909xm4674,-975v-2,526,-116,846,-536,935v-126,27,-289,40,-488,40r-1246,0v-526,0,-868,-120,-994,-513v-64,-200,-63,-523,-62,-806r-803,0r0,1319r-295,0r0,-2843r295,0r0,1237r803,0v-7,-317,11,-653,102,-844v151,-317,462,-425,954,-425r1246,0v471,5,754,80,910,389v74,147,114,355,114,626r0,885","w":4870},"\u00de":{"d":"4379,-1884v-10,-346,-56,-550,-288,-646v-102,-42,-251,-59,-446,-59r-1245,0v-346,2,-558,59,-672,277v-52,100,-86,244,-86,428r0,909v5,372,102,591,404,657v94,21,212,31,354,31r1245,0v205,0,359,-17,459,-57v233,-93,275,-285,275,-631r0,-909xm4674,-975v-2,526,-116,846,-536,935v-126,27,-289,40,-488,40r-1246,0v-526,0,-868,-120,-994,-513v-64,-200,-63,-523,-62,-806r-803,0r0,1319r-295,0r0,-2843r295,0r0,1237r803,0v-7,-317,11,-653,102,-844v151,-317,462,-425,954,-425r1246,0v471,5,754,80,910,389v74,147,114,355,114,626r0,885","w":4870},"\u042f":{"d":"3088,-4r-295,0r0,-1172r-1417,0r-909,1172r-410,0r967,-1172v-568,-4,-852,-267,-852,-790v1,-419,127,-671,424,-790v146,-58,337,-87,575,-87r1917,0r0,2839xm2793,-1462r0,-1094r-1740,0v-272,1,-438,63,-527,243v-72,146,-82,530,-2,667v97,164,272,184,557,184r1712,0","w":3355},"\u00df":{"d":"3088,-4r-295,0r0,-1172r-1417,0r-909,1172r-410,0r967,-1172v-568,-4,-852,-267,-852,-790v1,-419,127,-671,424,-790v146,-58,337,-87,575,-87r1917,0r0,2839xm2793,-1462r0,-1094r-1740,0v-272,1,-438,63,-527,243v-72,146,-82,530,-2,667v97,164,272,184,557,184r1712,0","w":3355},"\u0430":{"d":"2376,-1356v-5,-272,-188,-422,-492,-422r-782,0v-209,0,-347,31,-407,98v-85,94,-100,117,-93,238r-303,0r0,-74r-8,0v0,-41,15,-101,45,-178v30,-77,101,-151,210,-222v109,-71,270,-107,482,-107r889,0v508,0,762,237,762,712r0,1311r-295,0r0,-164v-19,27,-58,61,-118,102v-60,41,-141,62,-243,62r-1146,0v-453,0,-680,-172,-680,-516r0,-246v0,-146,52,-262,156,-347v104,-85,262,-128,474,-128r1180,0v140,0,235,20,285,60v50,40,79,73,84,100r0,-279xm1933,-254v293,-1,443,-94,443,-369v0,-245,-148,-368,-443,-368r-999,0v-175,0,-290,27,-352,71v-92,66,-90,212,-90,371v0,97,32,171,97,221v65,50,180,74,345,74r999,0","w":2912},"\u00e0":{"d":"2376,-1356v-5,-272,-188,-422,-492,-422r-782,0v-209,0,-347,31,-407,98v-85,94,-100,117,-93,238r-303,0r0,-74r-8,0v0,-41,15,-101,45,-178v30,-77,101,-151,210,-222v109,-71,270,-107,482,-107r889,0v508,0,762,237,762,712r0,1311r-295,0r0,-164v-19,27,-58,61,-118,102v-60,41,-141,62,-243,62r-1146,0v-453,0,-680,-172,-680,-516r0,-246v0,-146,52,-262,156,-347v104,-85,262,-128,474,-128r1180,0v140,0,235,20,285,60v50,40,79,73,84,100r0,-279xm1933,-254v293,-1,443,-94,443,-369v0,-245,-148,-368,-443,-368r-999,0v-175,0,-290,27,-352,71v-92,66,-90,212,-90,371v0,97,32,171,97,221v65,50,180,74,345,74r999,0","w":2912},"\u0431":{"d":"1876,-2032v564,-2,870,267,885,795r0,442v-16,526,-325,803,-885,803r-811,0v-559,0,-881,-252,-881,-799r0,-774v3,-382,110,-703,334,-880v119,-94,268,-144,453,-144r897,0v140,0,249,-9,326,-27v136,-32,205,-84,210,-231r234,0v-3,413,-296,504,-729,504r-865,0v-196,0,-340,59,-432,177v-92,118,-137,261,-137,429v107,-197,303,-295,590,-295r811,0xm1085,-1786v-379,-3,-610,186,-610,549r0,442v0,371,203,557,610,557r770,0v407,0,611,-186,611,-557r0,-442v0,-365,-233,-549,-611,-549r-770,0","w":2933},"\u00e1":{"d":"1876,-2032v564,-2,870,267,885,795r0,442v-16,526,-325,803,-885,803r-811,0v-559,0,-881,-252,-881,-799r0,-774v3,-382,110,-703,334,-880v119,-94,268,-144,453,-144r897,0v140,0,249,-9,326,-27v136,-32,205,-84,210,-231r234,0v-3,413,-296,504,-729,504r-865,0v-196,0,-340,59,-432,177v-92,118,-137,261,-137,429v107,-197,303,-295,590,-295r811,0xm1085,-1786v-379,-3,-610,186,-610,549r0,442v0,371,203,557,610,557r770,0v407,0,611,-186,611,-557r0,-442v0,-365,-233,-549,-611,-549r-770,0","w":2933},"\u0432":{"d":"2445,-1516v-3,-200,-165,-278,-385,-278r-1519,0r0,639r1527,0v251,0,377,-93,377,-279r0,-82xm2421,-1040v215,43,361,193,372,417v23,452,-256,623,-729,623r-1818,0r0,-2040r1773,0v242,0,423,45,542,138v140,109,179,249,179,468v0,217,-134,361,-319,394xm541,-909r0,655r1515,0v143,0,252,-24,328,-72v102,-63,115,-150,115,-297v0,-95,-32,-167,-95,-215v-63,-48,-194,-71,-393,-71r-1470,0","w":3023},"\u00e2":{"d":"2445,-1516v-3,-200,-165,-278,-385,-278r-1519,0r0,639r1527,0v251,0,377,-93,377,-279r0,-82xm2421,-1040v215,43,361,193,372,417v23,452,-256,623,-729,623r-1818,0r0,-2040r1773,0v242,0,423,45,542,138v140,109,179,249,179,468v0,217,-134,361,-319,394xm541,-909r0,655r1515,0v143,0,252,-24,328,-72v102,-63,115,-150,115,-297v0,-95,-32,-167,-95,-215v-63,-48,-194,-71,-393,-71r-1470,0","w":3023},"\u0433":{"d":"483,0r-295,0r0,-2023r1926,0r0,245r-1631,0r0,1778","w":2249},"\u00e3":{"d":"483,0r-295,0r0,-2023r1926,0r0,245r-1631,0r0,1778","w":2249},"\u0434":{"d":"336,-246v207,-115,311,-373,311,-774r0,-1003r2241,0r0,1777r237,0r0,1016r-282,0r0,-770r-2380,0r0,770r-283,0r0,-1016r156,0xm2593,-246r0,-1532r-1651,0r0,721v0,429,-86,700,-258,811r1909,0","w":3244},"\u00e4":{"d":"336,-246v207,-115,311,-373,311,-774r0,-1003r2241,0r0,1777r237,0r0,1016r-282,0r0,-770r-2380,0r0,770r-283,0r0,-1016r156,0xm2593,-246r0,-1532r-1651,0r0,721v0,429,-86,700,-258,811r1909,0","w":3244},"\u0435":{"d":"2490,-1237v-3,-347,-198,-549,-544,-549r-926,0v-327,8,-515,217,-520,549r1990,0xm1073,8v-556,2,-868,-233,-868,-762r0,-532v7,-298,175,-523,399,-640v132,-69,284,-106,461,-106r852,0v277,0,491,68,642,205v151,137,226,306,226,508r0,328r-2285,0r0,196v0,371,187,557,561,557r962,0v287,3,477,-136,467,-409r295,0v4,268,-107,451,-300,561v-109,62,-248,94,-421,94r-991,0","w":2982},"\u00e5":{"d":"2490,-1237v-3,-347,-198,-549,-544,-549r-926,0v-327,8,-515,217,-520,549r1990,0xm1073,8v-556,2,-868,-233,-868,-762r0,-532v7,-298,175,-523,399,-640v132,-69,284,-106,461,-106r852,0v277,0,491,68,642,205v151,137,226,306,226,508r0,328r-2285,0r0,196v0,371,187,557,561,557r962,0v287,3,477,-136,467,-409r295,0v4,268,-107,451,-300,561v-109,62,-248,94,-421,94r-991,0","w":2982},"\u0436":{"d":"1864,0r295,0r0,-1008r286,0r1114,1008r406,0r-1270,-1139r1147,-884r-434,0r-959,770r-290,0r0,-770r-295,0r0,770r-291,0r-959,-770r-434,0r1147,884r-1270,1139r406,0r1114,-1008r287,0r0,1008","w":4002},"\u00e6":{"d":"1864,0r295,0r0,-1008r286,0r1114,1008r406,0r-1270,-1139r1147,-884r-434,0r-959,770r-290,0r0,-770r-295,0r0,770r-291,0r-959,-770r-434,0r1147,884r-1270,1139r406,0r1114,-1008r287,0r0,1008","w":4002},"\u0437":{"d":"901,8r1122,-8v248,0,432,-45,551,-137v141,-109,188,-253,179,-477v-9,-221,-160,-378,-373,-418v185,-33,319,-176,319,-393v0,-439,-260,-607,-721,-607r-905,0v-333,0,-563,48,-688,144v-125,96,-188,215,-188,356r0,139r295,0r0,-131v0,-63,38,-122,113,-178v75,-56,229,-84,460,-84r954,0v222,-1,381,78,385,279r0,82v0,185,-125,278,-376,278r-1102,0r0,246r1044,0v199,0,329,24,393,71v84,62,101,165,95,306v-9,210,-200,278,-443,278r-1048,0v-131,0,-231,-12,-301,-36v-126,-43,-170,-102,-174,-250r0,-115r-295,0r0,147v0,339,235,511,704,508","w":2982},"\u00e7":{"d":"901,8r1122,-8v248,0,432,-45,551,-137v141,-109,188,-253,179,-477v-9,-221,-160,-378,-373,-418v185,-33,319,-176,319,-393v0,-439,-260,-607,-721,-607r-905,0v-333,0,-563,48,-688,144v-125,96,-188,215,-188,356r0,139r295,0r0,-131v0,-63,38,-122,113,-178v75,-56,229,-84,460,-84r954,0v222,-1,381,78,385,279r0,82v0,185,-125,278,-376,278r-1102,0r0,246r1044,0v199,0,329,24,393,71v84,62,101,165,95,306v-9,210,-200,278,-443,278r-1048,0v-131,0,-231,-12,-301,-36v-126,-43,-170,-102,-174,-250r0,-115r-295,0r0,147v0,339,235,511,704,508","w":2982},"\u0438":{"d":"238,0r0,-2023r294,0r0,1794r95,0r1667,-1794r491,0r0,2023r-295,0r0,-1794r-82,0r-1667,1794r-503,0","w":3023},"\u00e8":{"d":"238,0r0,-2023r294,0r0,1794r95,0r1667,-1794r491,0r0,2023r-295,0r0,-1794r-82,0r-1667,1794r-503,0","w":3023},"\u0439":{"d":"238,0r0,-2023r294,0r0,1794r95,0r1667,-1794r491,0r0,2023r-295,0r0,-1794r-82,0r-1667,1794r-503,0xm1081,-2445v150,42,600,42,751,0v152,-43,200,-109,204,-287r237,0v-5,285,-73,410,-299,494v-211,78,-821,81,-1034,0v-224,-85,-296,-211,-301,-494r238,0v3,176,53,245,204,287","w":3023},"\u00e9":{"d":"238,0r0,-2023r294,0r0,1794r95,0r1667,-1794r491,0r0,2023r-295,0r0,-1794r-82,0r-1667,1794r-503,0xm1081,-2445v150,42,600,42,751,0v152,-43,200,-109,204,-287r237,0v-5,285,-73,410,-299,494v-211,78,-821,81,-1034,0v-224,-85,-296,-211,-301,-494r238,0v3,176,53,245,204,287","w":3023},"\u043a":{"d":"238,0r0,-2023r294,0r0,770r320,0r1065,-770r471,0r-1278,901r1384,1122r-426,0r-1220,-1008r-316,0r0,1008r-294,0","w":2540},"\u00ea":{"d":"238,0r0,-2023r294,0r0,770r320,0r1065,-770r471,0r-1278,901r1384,1122r-426,0r-1220,-1008r-316,0r0,1008r-294,0","w":2540},"\u043b":{"d":"86,-246v371,21,520,-148,520,-516r0,-1261r2282,0r0,2023r-295,0r0,-1778r-1692,0r0,1024v1,534,-274,778,-815,754r0,-246","w":3125},"\u00eb":{"d":"86,-246v371,21,520,-148,520,-516r0,-1261r2282,0r0,2023r-295,0r0,-1778r-1692,0r0,1024v1,534,-274,778,-815,754r0,-246","w":3125},"\u043c":{"d":"3330,-2023r-532,0r-1029,1724r-1019,-1724r-533,0r0,2023r295,0r0,-1794r90,0r1073,1794r197,0r1073,-1794r90,0r0,1794r295,0r0,-2023","w":3559},"\u00ec":{"d":"3330,-2023r-532,0r-1029,1724r-1019,-1724r-533,0r0,2023r295,0r0,-1794r90,0r1073,1794r197,0r1073,-1794r90,0r0,1794r295,0r0,-2023","w":3559},"\u043d":{"d":"532,0r-294,0r0,-2023r294,0r0,827r1958,0r0,-827r295,0r0,2023r-295,0r0,-950r-1958,0r0,950","w":3023},"\u00ed":{"d":"532,0r-294,0r0,-2023r294,0r0,827r1958,0r0,-827r295,0r0,2023r-295,0r0,-950r-1958,0r0,950","w":3023},"\u043e":{"d":"172,-1016r8,-221v15,-522,312,-795,885,-795r811,0v564,-2,870,267,885,795r0,442v-16,526,-325,803,-885,803r-811,0v-582,0,-885,-268,-885,-803v0,-50,-10,-176,-8,-221xm1085,-1786v-398,-3,-610,161,-610,549r0,442v0,371,203,557,610,557r770,0v407,0,611,-186,611,-557r0,-442v0,-365,-233,-549,-611,-549r-770,0","w":2933},"\u00ee":{"d":"172,-1016r8,-221v15,-522,312,-795,885,-795r811,0v564,-2,870,267,885,795r0,442v-16,526,-325,803,-885,803r-811,0v-582,0,-885,-268,-885,-803v0,-50,-10,-176,-8,-221xm1085,-1786v-398,-3,-610,161,-610,549r0,442v0,371,203,557,610,557r770,0v407,0,611,-186,611,-557r0,-442v0,-365,-233,-549,-611,-549r-770,0","w":2933},"\u043f":{"d":"532,0r-294,0r0,-2023r2547,0r0,2023r-295,0r0,-1778r-1958,0r0,1778","w":3023},"\u00ef":{"d":"532,0r-294,0r0,-2023r2547,0r0,2023r-295,0r0,-1778r-1958,0r0,1778","w":3023},"\u0440":{"d":"2753,-786v-16,523,-310,794,-861,794r-794,0v-188,0,-327,-29,-418,-86v-91,-57,-149,-105,-172,-143r0,1048r-295,0r0,-2850r295,0r0,221v23,-37,79,-82,166,-138v90,-58,240,-83,424,-83r794,0v555,-2,844,273,861,794r0,443xm1130,-1778v-385,-7,-630,196,-630,549v0,46,-9,181,-8,221r8,222v4,346,245,548,626,548r660,0v426,-2,672,-140,672,-548r0,-443v0,-366,-224,-549,-672,-549r-656,0","w":2933},"\u00f0":{"d":"2753,-786v-16,523,-310,794,-861,794r-794,0v-188,0,-327,-29,-418,-86v-91,-57,-149,-105,-172,-143r0,1048r-295,0r0,-2850r295,0r0,221v23,-37,79,-82,166,-138v90,-58,240,-83,424,-83r794,0v555,-2,844,273,861,794r0,443xm1130,-1778v-385,-7,-630,196,-630,549v0,46,-9,181,-8,221r8,222v4,346,245,548,626,548r660,0v426,-2,672,-140,672,-548r0,-443v0,-366,-224,-549,-672,-549r-656,0","w":2933},"\u0441":{"d":"991,8v-522,6,-819,-259,-819,-753r0,-508v11,-502,321,-779,844,-779r885,0r8,9v233,0,412,42,538,127v126,85,209,178,247,279v44,117,62,193,59,298r-295,0v4,-123,-31,-209,-113,-319v-74,-100,-223,-148,-444,-148r-885,0v-350,0,-549,180,-549,533r0,508v-8,306,230,507,528,507r901,0v265,8,450,-99,521,-255v37,-81,44,-134,41,-220r295,0v5,183,-47,314,-169,487v-111,157,-341,234,-683,234r-910,0","w":2933},"\u00f1":{"d":"991,8v-522,6,-819,-259,-819,-753r0,-508v11,-502,321,-779,844,-779r885,0r8,9v233,0,412,42,538,127v126,85,209,178,247,279v44,117,62,193,59,298r-295,0v4,-123,-31,-209,-113,-319v-74,-100,-223,-148,-444,-148r-885,0v-350,0,-549,180,-549,533r0,508v-8,306,230,507,528,507r901,0v265,8,450,-99,521,-255v37,-81,44,-134,41,-220r295,0v5,183,-47,314,-169,487v-111,157,-341,234,-683,234r-910,0","w":2933},"\u0442":{"d":"1503,0r-295,0r0,-1778r-1106,0r0,-245r2507,0r0,245r-1106,0r0,1778","w":2736},"\u00f2":{"d":"1503,0r-295,0r0,-1778r-1106,0r0,-245r2507,0r0,245r-1106,0r0,1778","w":2736},"\u0443":{"d":"8,-2023r307,0r942,1736r58,0r745,-1736r307,0r-1015,2289v-165,375,-315,603,-836,602r-98,0r0,-245v173,2,336,5,436,-71v67,-50,126,-112,170,-192v44,-80,100,-200,168,-360r-74,0","w":2413},"\u00f3":{"d":"8,-2023r307,0r942,1736r58,0r745,-1736r307,0r-1015,2289v-165,375,-315,603,-836,602r-98,0r0,-245v173,2,336,5,436,-71v67,-50,126,-112,170,-192v44,-80,100,-200,168,-360r-74,0","w":2413},"\u0444":{"d":"4162,-782v-35,507,-308,795,-869,790v-275,-3,-634,17,-783,-86v-88,-61,-148,-105,-171,-143r0,1048r-295,0r0,-1048v-23,38,-81,86,-172,143v-91,57,-230,86,-418,86r-364,0v-547,0,-836,-263,-869,-790r0,-447v36,-529,326,-794,869,-794r389,0v263,-5,466,90,565,221r0,-1024r295,0r0,1024v23,-37,81,-79,166,-138v151,-104,513,-83,788,-83v543,0,833,265,869,794r0,447xm2961,-1778v-385,-7,-630,196,-630,549v0,59,-11,173,-9,221r9,222v5,348,251,557,635,548r229,0v426,-2,672,-140,672,-548r0,-443v0,-366,-224,-549,-672,-549r-234,0xm2060,-1012r-8,-221v-8,-366,-246,-549,-631,-549r-233,0v-448,0,-672,183,-672,549r0,442v2,406,260,552,684,553r209,0v384,9,643,-205,643,-553v0,-48,9,-180,8,-221","w":4383},"\u00f4":{"d":"4162,-782v-35,507,-308,795,-869,790v-275,-3,-634,17,-783,-86v-88,-61,-148,-105,-171,-143r0,1048r-295,0r0,-1048v-23,38,-81,86,-172,143v-91,57,-230,86,-418,86r-364,0v-547,0,-836,-263,-869,-790r0,-447v36,-529,326,-794,869,-794r389,0v263,-5,466,90,565,221r0,-1024r295,0r0,1024v23,-37,81,-79,166,-138v151,-104,513,-83,788,-83v543,0,833,265,869,794r0,447xm2961,-1778v-385,-7,-630,196,-630,549v0,59,-11,173,-9,221r9,222v5,348,251,557,635,548r229,0v426,-2,672,-140,672,-548r0,-443v0,-366,-224,-549,-672,-549r-234,0xm2060,-1012r-8,-221v-8,-366,-246,-549,-631,-549r-233,0v-448,0,-672,183,-672,549r0,442v2,406,260,552,684,553r209,0v384,9,643,-205,643,-553v0,-48,9,-180,8,-221","w":4383},"\u0445":{"d":"180,-2023r361,0r762,745r745,-745r360,0r-933,925r1097,1098r-368,0r-910,-909r-917,909r-352,0r1089,-1098","w":2609},"\u00f5":{"d":"180,-2023r361,0r762,745r745,-745r360,0r-933,925r1097,1098r-368,0r-910,-909r-917,909r-352,0r1089,-1098","w":2609},"\u0446":{"d":"532,-246r1958,0r0,-1777r295,0r0,1777r242,0r0,1016r-287,0r0,-770r-2502,0r0,-2023r294,0r0,1777","w":3138},"\u00f6":{"d":"532,-246r1958,0r0,-1777r295,0r0,1777r242,0r0,1016r-287,0r0,-770r-2502,0r0,-2023r294,0r0,1777","w":3138},"\u0447":{"d":"483,-1573v-1,354,228,524,590,524r647,0v330,-7,590,-168,590,-499r0,-480r295,0r0,2024r-295,0r0,-1045v-97,143,-332,254,-590,254r-647,0v-590,0,-885,-267,-885,-802r0,-431r295,0r0,455","w":2802},"\u00f7":{"d":"483,-1573v-1,354,228,524,590,524r647,0v330,-7,590,-168,590,-499r0,-480r295,0r0,2024r-295,0r0,-1045v-97,143,-332,254,-590,254r-647,0v-590,0,-885,-267,-885,-802r0,-431r295,0r0,455","w":2802},"\u0448":{"d":"197,-2023r295,0r0,1777r1576,0r0,-1777r295,0r0,1777r1577,0r0,-1777r295,0r0,2023r-4038,0r0,-2023","w":4456},"\u00f8":{"d":"197,-2023r295,0r0,1777r1576,0r0,-1777r295,0r0,1777r1577,0r0,-1777r295,0r0,2023r-4038,0r0,-2023","w":4456},"\u0449":{"d":"197,-2023r295,0r0,1777r1576,0r0,-1777r295,0r0,1777r1577,0r0,-1777r295,0r0,1777r238,0r0,1016r-283,0r0,-770r-3993,0r0,-2023","w":4538},"\u00f9":{"d":"197,-2023r295,0r0,1777r1576,0r0,-1777r295,0r0,1777r1577,0r0,-1777r295,0r0,1777r238,0r0,1016r-283,0r0,-770r-3993,0r0,-2023","w":4538},"\u044a":{"d":"3125,-762v0,-146,-52,-262,-156,-347v-104,-85,-262,-128,-475,-128r-1572,0r0,-786r-885,0r0,245r581,0r0,1778r1827,0v453,0,680,-172,680,-516r0,-246xm922,-991r1466,0v175,0,290,27,352,71v92,66,90,212,90,371v0,99,-32,175,-96,226v-64,51,-181,77,-350,77r-1462,0r0,-745","w":3269},"\u00fa":{"d":"3125,-762v0,-146,-52,-262,-156,-347v-104,-85,-262,-128,-475,-128r-1572,0r0,-786r-885,0r0,245r581,0r0,1778r1827,0v453,0,680,-172,680,-516r0,-246xm922,-991r1466,0v175,0,290,27,352,71v92,66,90,212,90,371v0,99,-32,175,-96,226v-64,51,-181,77,-350,77r-1462,0r0,-745","w":3269},"\u044b":{"d":"2732,-762v0,-146,-52,-262,-156,-347v-104,-85,-262,-128,-475,-128r-1573,0r0,-786r-303,0r0,2023r1827,0v453,0,680,-172,680,-516r0,-246xm528,-991r1467,0v175,0,290,27,352,71v92,66,90,212,90,371v0,99,-33,175,-97,226v-64,51,-180,77,-349,77r-1463,0r0,-745xm3183,0r0,-2023r295,0r0,2023r-295,0","w":3723},"\u00fb":{"d":"2732,-762v0,-146,-52,-262,-156,-347v-104,-85,-262,-128,-475,-128r-1573,0r0,-786r-303,0r0,2023r1827,0v453,0,680,-172,680,-516r0,-246xm528,-991r1467,0v175,0,290,27,352,71v92,66,90,212,90,371v0,99,-33,175,-97,226v-64,51,-180,77,-349,77r-1463,0r0,-745xm3183,0r0,-2023r295,0r0,2023r-295,0","w":3723},"\u044c":{"d":"2732,-762v0,-146,-52,-262,-156,-347v-104,-85,-262,-128,-475,-128r-1573,0r0,-786r-303,0r0,2023r1827,0v453,0,680,-172,680,-516r0,-246xm528,-991r1467,0v175,0,290,27,352,71v92,66,90,212,90,371v0,99,-33,175,-97,226v-64,51,-180,77,-349,77r-1463,0r0,-745","w":2875},"\u00fc":{"d":"2732,-762v0,-146,-52,-262,-156,-347v-104,-85,-262,-128,-475,-128r-1573,0r0,-786r-303,0r0,2023r1827,0v453,0,680,-172,680,-516r0,-246xm528,-991r1467,0v175,0,290,27,352,71v92,66,90,212,90,371v0,99,-33,175,-97,226v-64,51,-180,77,-349,77r-1463,0r0,-745","w":2875},"\u044d":{"d":"2753,-745v-3,496,-297,753,-820,753r-909,0v-342,0,-571,-77,-682,-234v-121,-171,-175,-307,-170,-487r295,0v-5,137,29,218,117,331v76,97,225,144,444,144r901,0v312,-9,525,-188,529,-507r0,-197r-1729,0r0,-246r1729,0v21,-396,-175,-598,-549,-598r-885,0v-221,0,-370,48,-444,148v-81,109,-117,197,-113,319r-295,0v-3,-107,14,-180,58,-298v38,-101,122,-194,248,-279v126,-85,305,-127,538,-127r8,-9r885,0v522,2,844,275,844,779r0,508","w":2933},"\u00fd":{"d":"2753,-745v-3,496,-297,753,-820,753r-909,0v-342,0,-571,-77,-682,-234v-121,-171,-175,-307,-170,-487r295,0v-5,137,29,218,117,331v76,97,225,144,444,144r901,0v312,-9,525,-188,529,-507r0,-197r-1729,0r0,-246r1729,0v21,-396,-175,-598,-549,-598r-885,0v-221,0,-370,48,-444,148v-81,109,-117,197,-113,319r-295,0v-3,-107,14,-180,58,-298v38,-101,122,-194,248,-279v126,-85,305,-127,538,-127r8,-9r885,0v522,2,844,275,844,779r0,508","w":2933},"\u044e":{"d":"3514,-795v-17,525,-323,803,-884,803r-811,0v-579,0,-873,-268,-881,-803r0,-163r-463,0r0,950r-295,0r0,-2024r295,0r0,828r463,0v3,-548,299,-828,881,-828r811,0v563,-2,869,267,884,795r0,442xm1839,-1786v-398,-3,-610,161,-610,549r0,442v0,371,203,557,610,557r766,0v380,-1,614,-174,614,-557r0,-442v1,-362,-240,-549,-614,-549r-766,0","w":3686},"\u00fe":{"d":"3514,-795v-17,525,-323,803,-884,803r-811,0v-579,0,-873,-268,-881,-803r0,-163r-463,0r0,950r-295,0r0,-2024r295,0r0,828r463,0v3,-548,299,-828,881,-828r811,0v563,-2,869,267,884,795r0,442xm1839,-1786v-398,-3,-610,161,-610,549r0,442v0,371,203,557,610,557r766,0v380,-1,614,-174,614,-557r0,-442v1,-362,-240,-549,-614,-549r-766,0","w":3686},"\u044f":{"d":"94,-1262v0,146,53,261,156,348v115,98,318,136,561,128r-893,786r418,0r819,-786r1139,0r0,786r303,0r0,-2023r-1823,0v-453,0,-680,172,-680,516r0,245xm2294,-1032r-1463,0v-173,0,-288,-26,-351,-71v-94,-67,-91,-212,-91,-372v0,-99,32,-173,97,-225v65,-52,181,-78,350,-78r1458,0r0,746","w":2888},"\u00ff":{"d":"94,-1262v0,146,53,261,156,348v115,98,318,136,561,128r-893,786r418,0r819,-786r1139,0r0,786r303,0r0,-2023r-1823,0v-453,0,-680,172,-680,516r0,245xm2294,-1032r-1463,0v-173,0,-288,-26,-351,-71v-94,-67,-91,-212,-91,-372v0,-99,32,-173,97,-225v65,-52,181,-78,350,-78r1458,0r0,746","w":2888},"\u00a0":{"w":1303}}});
